svm_type c_svc
kernel_type polynomial
degree 2
gamma 1
coef0 1
nr_class 2
total_sv 260
rho 3.5972793812187107
label 1 0
nr_sv 130 130
SV
26.450172572607308 1:0.43 2:0.13 3:0.2 4:0.13 5:0.32 6:0.26 7:1 8:0 9:1 10:0 11:0 12:0 
33 1:0.11 2:0.36 3:0.44 4:0.41 5:0.37 6:0.83 7:0 8:0 9:0 10:1 11:0 12:0 
33 1:0.27 2:0.03 3:0.04 4:0 5:0.16 6:0.13 7:1 8:0 9:0 10:1 11:0 12:0 
33 1:0.59 2:0.17 3:0.32 4:0.41 5:0.36 6:0.16 7:1 8:0 9:0 10:1 11:1 12:0 
33 1:0.54 2:0.43 3:0.52 4:0.38 5:0.38 6:0.02 7:1 8:0 9:0 10:1 11:0 12:0 
33 1:0.43 2:0.2 3:0.24 4:0.25 5:0.32 6:0 7:1 8:0 9:0 10:1 11:0 12:0 
16.58082542368355 1:0.59 2:0.73 3:0 4:1 5:0.78 6:1 7:0 8:0 9:0 10:1 11:1 12:0 
30.518697501589905 1:0.43 2:0.77 3:0.92 4:0.63 5:0.63 6:0.13 7:1 8:0 9:1 10:0 11:0 12:0 
33 1:0.48 2:0.6 3:0.36 4:0.41 5:0.62 6:0.28 7:0 8:0 9:0 10:1 11:1 12:0 
9.0763873521433407 1:0.38 2:0.1 3:0.2 4:0.5 5:0.42 6:0.3 7:0 8:1 9:0 10:0 11:0 12:0 
33 1:0.48 2:0.33 3:0.44 4:0.41 5:0.42 6:0.97 7:0 8:0 9:0 10:1 11:0 12:0 
31.61206774511011 1:0.59 2:0.7 3:0.84 4:0.88 5:0.74 6:0.76 7:0 8:1 9:0 10:0 11:0 12:0 
33 1:0.16 2:0.3 3:0.36 4:0.25 5:0.3 6:0.99 7:0 8:0 9:0 10:1 11:0 12:0 
33 1:0.86 2:0.07 3:0 4:0.25 5:0.35 6:0.58 7:0 8:1 9:0 10:0 11:1 12:0 
33 1:0.38 2:0 3:0 4:0 5:0 6:0.06 7:0 8:0 9:0 10:1 11:0 12:0 
13.379322113933329 1:0.48 2:0.43 3:0.2 4:0.5 5:0.58 6:0.8 7:0 8:1 9:0 10:0 11:1 12:0 
33 1:0.43 2:0.37 3:0.52 4:0.38 5:0.33 6:0.13 7:1 8:1 9:0 10:0 11:0 12:0 
29.280041007176742 1:0.11 2:0.37 3:0.36 4:0.41 5:0.38 6:0.52 7:0 8:0 9:1 10:0 11:0 12:0 
33 1:0.48 2:0.23 3:0.28 4:0.38 5:0.25 6:0.01 7:0 8:1 9:0 10:0 11:0 12:0 
33 1:1 2:0.63 3:0.72 4:0.5 5:0.69 6:0.64 7:1 8:0 9:0 10:1 11:1 12:0 
32.946435410319211 1:1 2:0.27 3:0.28 4:0.41 5:0.49 6:0.41 7:0 8:1 9:0 10:0 11:0 12:0 
33 1:0.65 2:0.17 3:0.2 4:0.13 5:0.42 6:0.61 7:1 8:0 9:0 10:1 11:1 12:0 
33 1:0.48 2:0.1 3:0.12 4:0.57 5:0.22 6:0.22 7:0 8:1 9:0 10:0 11:0 12:0 
33 1:0.43 2:0.08 3:0.12 4:0 5:0.05 6:0.09 7:1 8:0 9:0 10:1 11:0 12:0 
25.892637981713598 1:0.32 2:0.33 3:0.4 4:0.25 5:0.46 6:0.11 7:1 8:0 9:0 10:1 11:0 12:0 
33 1:0.38 2:0.3 3:0.36 4:0.25 5:0.25 6:0.14 7:0 8:1 9:0 10:0 11:0 12:0 
3.6620299851041356 1:0.97 2:0.97 3:0 4:0.88 5:0.84 6:1 7:0 8:0 9:0 10:1 11:1 12:0 
33 1:0.59 2:0.27 3:0.36 4:0.38 5:0.21 6:0.17 7:0 8:0 9:0 10:1 11:0 12:0 
33 1:0.86 2:0.43 3:0.36 4:0.63 5:0.25 6:1 7:0 8:0 9:0 10:1 11:0 12:0 
33 1:0.65 2:0.4 3:0.48 4:0.38 5:0.29 6:0.25 7:0 8:0 9:0 10:1 11:1 12:0 
33 1:0.27 2:0.47 3:0.56 4:0.63 5:0.53 6:0.07 7:1 8:0 9:0 10:1 11:0 12:0 
33 1:0.65 2:0.63 3:0.24 4:1 5:0.86 6:0.66 7:0 8:1 9:0 10:0 11:0 12:0 
0.1721334873933725 1:0.81 2:1 3:1 4:1 5:1 6:0.07 7:0 8:0 9:0 10:1 11:1 12:0 
33 1:0.48 2:0.2 3:0.08 4:0.41 5:0.5 6:0.84 7:0 8:0 9:0 10:1 11:0 12:0 
33 1:0.48 2:0.67 3:0.48 4:0.41 5:0.64 6:0.56 7:0 8:1 9:0 10:0 11:0 12:0 
33 1:0.43 2:0.2 3:0.28 4:0.41 5:0.14 6:0.26 7:1 8:1 9:0 10:0 11:0 12:0 
0.65141668032159084 1:1 2:0.5 3:0.48 4:0.5 5:0.48 6:0.84 7:0 8:0 9:0 10:1 11:0 12:0 
33 1:0.16 2:0.53 3:0.56 4:0.63 5:0.58 6:0.22 7:0 8:0 9:0 10:1 11:0 12:0 
33 1:0.27 2:0.43 3:0.52 4:0.41 5:0.4 6:0.11 7:0 8:0 9:0 10:1 11:0 12:0 
21.757306836811665 1:0.65 2:0.23 3:0.28 4:0 5:0.18 6:1 7:0 8:1 9:0 10:0 11:0 12:0 
33 1:0.43 2:0.17 3:0.2 4:0.41 5:0.39 6:0.25 7:0 8:1 9:0 10:0 11:0 12:0 
16.017446029541237 1:0.81 2:0.55 3:0.68 4:1 5:0.86 6:0.61 7:0 8:0 9:0 10:1 11:1 12:0 
33 1:0.22 2:0.68 3:0.88 4:0.63 5:0.63 6:0.69 7:1 8:0 9:0 10:1 11:0 12:0 
3.6427322803751863 1:0.38 2:0.63 3:0.72 4:1 5:0.54 6:0.41 7:0 8:0 9:0 10:1 11:1 12:0 
23.90295297349299 1:0.91 2:0.17 3:0.24 4:0.25 5:0.28 6:0.05 7:0 8:1 9:0 10:0 11:0 12:0 
11.782982866702838 1:0.54 2:0.22 3:0.28 4:0.57 5:0.37 6:0.22 7:0 8:1 9:0 10:0 11:0 12:0 
33 1:0.38 2:0.23 3:0.32 4:0.41 5:0.31 6:0.2 7:1 8:1 9:0 10:0 11:0 12:0 
33 1:0.05 2:0.43 3:0.28 4:0.5 5:0.67 6:0.42 7:0 8:0 9:0 10:1 11:0 12:0 
33 1:0.27 2:0 3:0 4:0 5:0 6:0.03 7:0 8:0 9:0 10:1 11:0 12:0 
33 1:0.16 2:0.27 3:0.24 4:0.63 5:0.65 6:0.19 7:0 8:0 9:0 10:1 11:0 12:0 
33 1:0.65 2:0.33 3:0.32 4:0.41 5:0.37 6:0.47 7:0 8:1 9:0 10:0 11:0 12:0 
33 1:1 2:0.7 3:0.84 4:0.88 5:0.59 6:0.14 7:0 8:0 9:0 10:1 11:1 12:0 
33 1:0.22 2:0.2 3:0.24 4:0.25 5:0.19 6:0.22 7:0 8:0 9:0 10:1 11:0 12:0 
33 1:0.32 2:0.23 3:0.28 4:0 5:0.33 6:1 7:0 8:1 9:0 10:0 11:0 12:0 
33 1:0.22 2:0.13 3:0.08 4:0.13 5:0.35 6:0.65 7:0 8:0 9:0 10:1 11:0 12:0 
33 1:0.22 2:0.27 3:0.32 4:0.41 5:0.4 6:0.23 7:0 8:0 9:0 10:1 11:0 12:0 
33 1:0.16 2:0.27 3:0.24 4:0.06 5:0.37 6:0.84 7:0 8:0 9:0 10:1 11:0 12:0 
33 1:0.65 2:0.1 3:0.12 4:0.38 5:0.17 6:0.13 7:0 8:1 9:0 10:0 11:0 12:0 
33 1:0.16 2:0.4 3:0.4 4:0.38 5:0.39 6:0.3 7:1 8:0 9:0 10:1 11:0 12:0 
33 1:0.86 2:1 3:1 4:1 5:1 6:0.18 7:0 8:0 9:0 10:1 11:0 12:0 
4.6325319659662636 1:0.27 2:0.43 3:0.44 4:0.5 5:0.61 6:0.09 7:0 8:0 9:1 10:0 11:0 12:0 
33 1:0.65 2:0.37 3:0.48 4:0.5 5:0.33 6:0.1 7:1 8:1 9:0 10:0 11:0 12:0 
17.555896132356299 1:0.54 2:0.9 3:0.68 4:0.41 5:1 6:0 7:0 8:1 9:0 10:0 11:0 12:0 
33 1:0.81 2:1 3:1 4:1 5:1 6:0.17 7:1 8:1 9:0 10:0 11:1 12:0 
33 1:0.05 2:0.7 3:0.6 4:0.41 5:0.56 6:0.38 7:1 8:0 9:0 10:1 11:0 12:0 
33 1:0.54 2:0.17 3:0.24 4:0.13 5:0.12 6:0.14 7:1 8:0 9:0 10:1 11:0 12:0 
33 1:0.22 2:0.2 3:0.24 4:0.41 5:0.21 6:0.05 7:0 8:0 9:0 10:1 11:0 12:0 
18.421006250350249 1:1 2:0.37 3:0.44 4:0.5 5:0.35 6:0.98 7:0 8:1 9:0 10:0 11:0 12:0 
28.555757048195435 1:0.54 2:0.23 3:0.32 4:0.38 5:0.45 6:0.89 7:0 8:0 9:0 10:1 11:1 12:0 
33 1:0.54 2:0.77 3:0.68 4:0.41 5:0.63 6:0.4 7:0 8:0 9:0 10:1 11:0 12:0 
33 1:0.16 2:0.37 3:0.44 4:0.41 5:0.38 6:0.06 7:1 8:0 9:0 10:1 11:0 12:0 
33 1:0.65 2:0.37 3:0.48 4:0.41 5:0.41 6:1 7:0 8:0 9:0 10:1 11:0 12:0 
33 1:0.22 2:0.53 3:0.44 4:0.5 5:0.58 6:0.61 7:1 8:0 9:0 10:1 11:0 12:0 
33 1:0.05 2:0.53 3:0.56 4:0.41 5:0.64 6:0.59 7:0 8:0 9:0 10:1 11:0 12:0 
33 1:0.48 2:0.03 3:0.08 4:0.13 5:0.04 6:0.14 7:0 8:1 9:0 10:0 11:0 12:0 
31.980737101973492 1:0.91 2:0.37 3:0.44 4:0.25 5:0.38 6:0.33 7:0 8:1 9:0 10:0 11:1 12:0 
33 1:0.48 2:0.67 3:0.44 4:0.75 5:0.7 6:0.42 7:0 8:0 9:0 10:1 11:0 12:0 
33 1:0.22 2:0.17 3:0.2 4:0 5:0.23 6:0.26 7:0 8:0 9:0 10:1 11:0 12:0 
33 1:0.48 2:0.5 3:0.36 4:0.5 5:0.51 6:0.76 7:1 8:0 9:0 10:1 11:1 12:0 
33 1:0.38 2:0.37 3:0.32 4:0.41 5:0.38 6:0.9 7:0 8:0 9:0 10:1 11:0 12:0 
33 1:0 2:0.13 3:0.28 4:0.41 5:0.29 6:0.08 7:0 8:0 9:0 10:1 11:0 12:0 
33 1:0.38 2:0.4 3:0.28 4:0.5 5:0.48 6:0.61 7:0 8:1 9:0 10:0 11:0 12:0 
33 1:0.43 2:0.1 3:0.12 4:0.41 5:0.3 6:0.17 7:0 8:1 9:0 10:0 11:0 12:0 
33 1:1 2:0.27 3:0.28 4:0.25 5:0.27 6:0.5 7:0 8:0 9:0 10:1 11:1 12:0 
33 1:0.32 2:0.43 3:0.2 4:0.38 5:0.49 6:0.11 7:0 8:1 9:0 10:0 11:0 12:0 
33 1:0.54 2:0.32 3:0.32 4:0.25 5:0.35 6:0.81 7:0 8:1 9:0 10:0 11:0 12:0 
1.3579005555084167 1:0.65 2:1 3:0.68 4:0.88 5:1 6:0.99 7:0 8:1 9:0 10:0 11:1 12:0 
33 1:0.75 2:0.07 3:0.08 4:0.25 5:0.21 6:0.22 7:0 8:0 9:0 10:1 11:1 12:0 
33 1:0.38 2:0.2 3:0.08 4:0.41 5:0.35 6:0.86 7:1 8:1 9:0 10:0 11:0 12:0 
33 1:0.59 2:0.3 3:0.44 4:0.63 5:0.39 6:0.15 7:1 8:1 9:0 10:0 11:1 12:0 
33 1:0.16 2:0.53 3:0.64 4:0.38 5:0.52 6:0.15 7:1 8:0 9:0 10:1 11:0 12:0 
33 1:0.05 2:0.37 3:0.44 4:0.25 5:0.25 6:0.11 7:0 8:0 9:0 10:1 11:0 12:0 
33 1:0.43 2:0.23 3:0.2 4:0.13 5:0.31 6:0.19 7:1 8:0 9:0 10:1 11:0 12:0 
33 1:0.43 2:0.03 3:0.12 4:0 5:0.06 6:0.1 7:0 8:1 9:0 10:0 11:0 12:0 
33 1:0.54 2:0.1 3:0.24 4:0.41 5:0.42 6:0.4 7:0 8:0 9:0 10:1 11:0 12:0 
33 1:0.27 2:1 3:1 4:0.41 5:0.71 6:0.26 7:0 8:0 9:0 10:1 11:0 12:0 
33 1:0.32 2:0.17 3:0.12 4:0.41 5:0.23 6:0.61 7:1 8:0 9:0 10:1 11:0 12:0 
33 1:0.59 2:0.7 3:0.76 4:0.88 5:0.94 6:0.66 7:1 8:1 9:0 10:0 11:1 12:0 
33 1:0.16 2:0.4 3:0.4 4:0.41 5:0.42 6:0.24 7:0 8:0 9:0 10:1 11:0 12:0 
1.3421893940044876 1:0.43 2:0.37 3:0.44 4:0.38 5:0.44 6:0.41 7:1 8:1 9:0 10:0 11:0 12:1 
18.592754318970684 1:0.32 2:0.77 3:0.08 4:0.63 5:0.85 6:1 7:1 8:1 9:0 10:0 11:0 12:0 
33 1:0.43 2:0.77 3:0 4:0.88 5:0.63 6:0.02 7:1 8:1 9:0 10:0 11:0 12:0 
33 1:0.43 2:0.57 3:0.68 4:0.5 5:0.78 6:0.8 7:0 8:0 9:0 10:1 11:0 12:0 
33 1:0.16 2:0.27 3:0.32 4:0.41 5:0.35 6:0.22 7:1 8:0 9:0 10:1 11:0 12:0 
7.4631452435796826 1:0.22 2:0.5 3:0.6 4:0.71 5:0.63 6:0.35 7:0 8:0 9:0 10:1 11:0 12:0 
14.886220785166127 1:0.91 2:0.27 3:0.36 4:0.63 5:0.59 6:0 7:0 8:0 9:0 10:1 11:1 12:0 
2.4489806161974927 1:0.11 2:0.27 3:0.64 4:0.25 5:0.21 6:0.11 7:1 8:0 9:0 10:1 11:0 12:0 
0.69479840227772793 1:0.75 2:0.27 3:0.24 4:0.38 5:0.37 6:0 7:0 8:1 9:0 10:0 11:1 12:1 
33 1:0.97 2:0.17 3:0.12 4:0.25 5:0.51 6:0.64 7:1 8:0 9:0 10:1 11:0 12:0 
33 1:0.54 2:0.37 3:0.4 4:0.25 5:0.41 6:0.02 7:1 8:0 9:0 10:1 11:0 12:0 
33 1:1 2:0.2 3:0.16 4:0.25 5:0.29 6:1 7:0 8:0 9:0 10:1 11:1 12:0 
33 1:0.75 2:0.03 3:0.08 4:0.13 5:0.11 6:0.05 7:0 8:0 9:0 10:1 11:0 12:0 
33 1:0.32 2:0.6 3:0.72 4:0.41 5:0.37 6:0 7:0 8:0 9:0 10:1 11:0 12:0 
33 1:0.54 2:0.3 3:0.24 4:0.25 5:0.28 6:0.18 7:0 8:0 9:1 10:0 11:0 12:0 
33 1:0.43 2:0.2 3:0.28 4:0.42 5:0.27 6:0.01 7:0 8:1 9:0 10:0 11:0 12:0 
11.545604186190458 1:1 2:0.77 3:0.68 4:0.41 5:0.69 6:0.3 7:0 8:0 9:0 10:1 11:1 12:0 
33 1:0.54 2:0 3:0.12 4:0 5:0.28 6:0.3 7:0 8:1 9:0 10:0 11:0 12:0 
15.983970366135066 1:0.43 2:0.77 3:0.92 4:0.41 5:0.52 6:0.45 7:0 8:1 9:0 10:0 11:0 12:0 
33 1:0.54 2:0.32 3:0.48 4:0.25 5:0.38 6:0.97 7:0 8:1 9:0 10:0 11:0 12:0 
33 1:0.11 2:0.23 3:0 4:0.25 5:0.61 6:0.43 7:1 8:0 9:0 10:1 11:0 12:0 
33 1:0.32 2:0.53 3:0.64 4:0.38 5:0.46 6:0.14 7:1 8:0 9:0 10:1 11:0 12:0 
33 1:0.27 2:0.35 3:0.36 4:0.13 5:0.34 6:1 7:0 8:0 9:0 10:1 11:0 12:0 
33 1:1 2:0.3 3:0.32 4:0.41 5:0.57 6:0.2 7:0 8:0 9:0 10:1 11:1 12:0 
33 1:0.22 2:0.82 3:1 4:1 5:0.62 6:0.14 7:1 8:0 9:0 10:1 11:0 12:0 
33 1:0.48 2:0.7 3:0.48 4:0.63 5:0.8 6:0.73 7:0 8:1 9:0 10:0 11:0 12:0 
33 1:0.75 2:0.67 3:0.64 4:0.5 5:0.83 6:0.81 7:0 8:1 9:0 10:0 11:0 12:0 
33 1:0.7 2:0.53 3:0.48 4:0.38 5:0.52 6:0 7:1 8:0 9:0 10:1 11:1 12:0 
33 1:0.22 2:0.13 3:0.2 4:0.13 5:0.11 6:0 7:1 8:0 9:0 10:1 11:0 12:0 
14.627197478577617 1:0.54 2:0.3 3:0.36 4:0.19 5:0.3 6:0.24 7:0 8:1 9:0 10:0 11:0 12:0 
33 1:0.16 2:0.27 3:0.32 4:0.25 5:0.21 6:0.06 7:0 8:0 9:0 10:1 11:0 12:0 
-33 1:0.32 2:0.3 3:0.4 4:0 5:0.42 6:0.95 7:1 8:0 9:0 10:1 11:0 12:0 
-33 1:0.75 2:0.2 3:0.28 4:0.25 5:0.27 6:1 7:0 8:1 9:0 10:0 11:0 12:0 
-13.964966790231864 1:0.38 2:0.77 3:0.6 4:0.25 5:0.85 6:0.9 7:1 8:0 9:0 10:1 11:0 12:0 
-33 1:1 2:0.2 3:0.32 4:0.25 5:0.38 6:0.65 7:0 8:0 9:0 10:1 11:0 12:0 
-33 1:0.54 2:0.37 3:0.28 4:0.25 5:0.47 6:0.39 7:0 8:0 9:0 10:1 11:0 12:0 
-30.061074052281224 1:0.32 2:0.2 3:0.16 4:0 5:0.09 6:0.17 7:0 8:0 9:0 10:1 11:0 12:0 
-33 1:0.22 2:0.32 3:0.28 4:0.5 5:0.38 6:0.01 7:0 8:0 9:0 10:1 11:0 12:0 
-33 1:0 2:0.23 3:0.04 4:0.57 5:0.45 6:0.35 7:1 8:0 9:0 10:1 11:0 12:0 
-33 1:0.59 2:0.6 3:0.72 4:0.63 5:0.59 6:1 7:0 8:0 9:0 10:1 11:0 12:0 
-1.6491281065538352 1:0.54 2:0.67 3:0.92 4:0.41 5:0.76 6:0.95 7:1 8:0 9:0 10:1 11:1 12:0 
-33 1:0.54 2:0.63 3:0.48 4:0.73 5:0.79 6:0.44 7:1 8:0 9:0 10:1 11:1 12:0 
-33 1:0.54 2:0.37 3:0.32 4:0.5 5:0.44 6:0 7:0 8:1 9:0 10:0 11:0 12:0 
-33 1:0.43 2:0 3:0.28 4:0 5:0 6:0.14 7:0 8:0 9:1 10:0 11:0 12:0 
-33 1:0.86 2:0.43 3:0.28 4:0.41 5:0.67 6:0.52 7:0 8:0 9:0 10:1 11:1 12:0 
-33 1:1 2:0.6 3:0.68 4:0.88 5:0.75 6:0.77 7:0 8:1 9:0 10:0 11:1 12:0 
-33 1:0.75 2:0.1 3:0.08 4:0.13 5:0.26 6:0.28 7:0 8:0 9:0 10:1 11:0 12:0 
-33 1:0.38 2:0.23 3:0.2 4:0.38 5:0.31 6:0.67 7:0 8:1 9:0 10:0 11:0 12:0 
-33 1:0.43 2:0.4 3:0.48 4:0.41 5:0.21 6:0.02 7:1 8:1 9:0 10:0 11:0 12:0 
-26.631890168642371 1:0.48 2:0.77 3:0.56 4:0.88 5:0.99 6:0.15 7:1 8:0 9:1 10:0 11:0 12:0 
-33 1:0.48 2:0.27 3:0.16 4:0.38 5:0.35 6:0 7:1 8:1 9:0 10:0 11:0 12:0 
-33 1:0.27 2:0.33 3:0.28 4:0.57 5:0.4 6:0.1 7:0 8:0 9:0 10:1 11:0 12:0 
-33 1:0.38 2:0.43 3:0.24 4:0.38 5:0.4 6:1 7:0 8:1 9:0 10:0 11:0 12:0 
-33 1:0.81 2:0.5 3:0.28 4:0.41 5:0.69 6:0.42 7:0 8:1 9:0 10:0 11:1 12:0 
-33 1:0.27 2:0.2 3:0.08 4:0.25 5:0.41 6:0.68 7:0 8:1 9:0 10:0 11:0 12:0 
-33 1:0.7 2:0 3:0 4:0 5:0.05 6:0.14 7:1 8:0 9:0 10:1 11:0 12:0 
-33 1:0.32 2:0.33 3:0.36 4:0.38 5:0.24 6:0.02 7:1 8:0 9:0 10:1 11:0 12:0 
-33 1:0.16 2:1 3:1 4:1 5:0.94 6:0.35 7:0 8:0 9:0 10:1 11:0 12:0 
-11.528162306342676 1:0.75 2:0.3 3:0.2 4:0.25 5:0.25 6:0.01 7:0 8:0 9:0 10:1 11:1 12:0 
-33 1:0.27 2:0.5 3:0.48 4:0.5 5:0.57 6:0.69 7:1 8:1 9:0 10:0 11:0 12:0 
-33 1:0.48 2:1 3:0.88 4:0.41 5:1 6:0.56 7:0 8:0 9:0 10:1 11:0 12:0 
-33 1:0.43 2:0.4 3:0.48 4:0.5 5:0.48 6:0.53 7:0 8:0 9:0 10:1 11:0 12:0 
-33 1:0.7 2:0.17 3:0.2 4:0.41 5:0.36 6:0.34 7:0 8:0 9:0 10:1 11:0 12:0 
-33 1:0.27 2:0.05 3:0.08 4:0.41 5:0.18 6:0.1 7:1 8:0 9:0 10:1 11:0 12:0 
-33 1:0.54 2:0.6 3:1 4:0.5 5:0.32 6:0.06 7:1 8:0 9:0 10:1 11:0 12:0 
-33 1:0.43 2:0.2 3:0.32 4:0.25 5:0.19 6:0.95 7:0 8:0 9:0 10:1 11:0 12:0 
-33 1:0 2:0.4 3:0.88 4:0.41 5:0.21 6:0.23 7:0 8:0 9:0 10:1 11:0 12:0 
-33 1:0.32 2:0.07 3:0.08 4:0.25 5:0.26 6:0.36 7:0 8:0 9:0 10:1 11:0 12:0 
-0.42054834747732345 1:0.05 2:0.07 3:0.08 4:0 5:0.01 6:0.09 7:1 8:0 9:0 10:1 11:0 12:1 
-1.6336206669957716 1:0.7 2:0.57 3:0.56 4:0.5 5:0.36 6:0.58 7:0 8:0 9:1 10:0 11:1 12:0 
-33 1:0.22 2:0.27 3:0.36 4:0.25 5:0.35 6:0.43 7:0 8:0 9:0 10:1 11:0 12:0 
-33 1:1 2:0.43 3:0.56 4:0.63 5:0.55 6:0.1 7:1 8:0 9:0 10:1 11:1 12:0 
-33 1:0.7 2:0.23 3:0.08 4:0.63 5:0.61 6:0.82 7:0 8:1 9:0 10:0 11:1 12:0 
-33 1:0.81 2:0.07 3:0.16 4:0.25 5:0.18 6:0.09 7:0 8:0 9:0 10:1 11:1 12:0 
-33 1:0.32 2:0.13 3:0.24 4:0.25 5:0.24 6:0.03 7:0 8:1 9:0 10:0 11:0 12:0 
-33 1:0 2:1 3:1 4:0.88 5:0.73 6:0.19 7:0 8:0 9:0 10:1 11:0 12:0 
-33 1:0 2:0.37 3:0.48 4:0.41 5:0.47 6:0.33 7:1 8:0 9:0 10:1 11:0 12:0 
-33 1:0.22 2:0.17 3:0.08 4:0.25 5:0.28 6:0.36 7:0 8:1 9:0 10:0 11:0 12:0 
-32.48024694523987 1:0.59 2:0.77 3:0.68 4:0.63 5:0.69 6:1 7:0 8:0 9:0 10:1 11:0 12:0 
-33 1:0.43 2:0.57 3:0.48 4:0.63 5:0.5 6:0.13 7:0 8:1 9:0 10:0 11:0 12:0 
-33 1:0.27 2:0.4 3:0.24 4:0.41 5:0.42 6:0.97 7:0 8:0 9:0 10:1 11:0 12:0 
-28.383412248185039 1:0.65 2:0.23 3:0.28 4:0.41 5:0.15 6:0.65 7:0 8:0 9:0 10:1 11:0 12:0 
-18.330145501841738 1:0.59 2:0.8 3:0.88 4:0.75 5:0.55 6:0.25 7:1 8:0 9:0 10:1 11:1 12:0 
-33 1:0.48 2:0.3 3:0.44 4:0.41 5:0.39 6:0.88 7:1 8:0 9:0 10:1 11:1 12:0 
-33 1:0.16 2:0.27 3:0.28 4:0.38 5:0.43 6:0.25 7:0 8:1 9:0 10:0 11:0 12:0 
-33 1:0.16 2:0.67 3:0.8 4:0.44 5:0.76 6:0.07 7:1 8:0 9:0 10:1 11:0 12:0 
-13.267194467133818 1:0 2:0.17 3:0.16 4:0 5:0.1 6:0.05 7:0 8:0 9:0 10:1 11:0 12:0 
-33 1:0.43 2:0.1 3:0.16 4:0.13 5:0.22 6:0.36 7:0 8:1 9:0 10:0 11:0 12:0 
-19.317603119177313 1:0.27 2:0.6 3:0.36 4:0.41 5:0.51 6:0.25 7:0 8:0 9:0 10:1 11:0 12:0 
-0.065841202973278223 1:1 2:0.13 3:0.24 4:0.13 5:0.16 6:0.88 7:1 8:0 9:0 10:1 11:1 12:1 
-33 1:0 2:0.17 3:0.2 4:0.13 5:0.36 6:0.24 7:0 8:0 9:0 10:1 11:0 12:0 
-8.7271309434807769 1:0.86 2:0.43 3:0.28 4:0.38 5:0.71 6:0.13 7:1 8:1 9:0 10:0 11:1 12:0 
-33 1:0.32 2:0.43 3:0.48 4:0.38 5:0.4 6:0.07 7:1 8:0 9:0 10:1 11:0 12:0 
-6.0738142547774379 1:0.43 2:0.23 3:0.2 4:0.25 5:0.25 6:0.38 7:1 8:1 9:0 10:0 11:0 12:0 
-33 1:0.59 2:0 3:0.12 4:0 5:0 6:0.03 7:0 8:1 9:0 10:0 11:0 12:0 
-15.774924833425857 1:0.54 2:0.2 3:0.32 4:0.41 5:0.32 6:0.75 7:1 8:0 9:0 10:1 11:1 12:0 
-33 1:0.32 2:0.25 3:0.28 4:0.41 5:0.22 6:0 7:1 8:0 9:0 10:1 11:0 12:0 
-33 1:0.59 2:0.27 3:0.28 4:0.25 5:0.27 6:0.69 7:0 8:1 9:0 10:0 11:0 12:0 
-8.0006087843500371 1:0.54 2:0.17 3:0.28 4:0.41 5:1 6:0.43 7:0 8:1 9:0 10:0 11:0 12:0 
-33 1:0.54 2:0.48 3:0.44 4:0.41 5:0.29 6:0 7:0 8:1 9:0 10:0 11:0 12:0 
-33 1:0.43 2:0.5 3:0.48 4:0.41 5:0.4 6:0.34 7:0 8:0 9:0 10:1 11:0 12:0 
-33 1:0.54 2:0.27 3:0.2 4:0.38 5:0.35 6:0.61 7:1 8:0 9:0 10:1 11:1 12:0 
-33 1:0.22 2:0.4 3:0.48 4:0.5 5:0.45 6:0.08 7:0 8:0 9:0 10:1 11:0 12:0 
-33 1:0.54 2:0.33 3:0.44 4:0.5 5:0.78 6:0.99 7:0 8:0 9:0 10:1 11:0 12:0 
-33 1:0 2:0.17 3:0.2 4:0 5:0.2 6:0.28 7:1 8:0 9:0 10:1 11:0 12:0 
-33 1:0.27 2:0.2 3:0.12 4:0.13 5:0.24 6:0.05 7:0 8:0 9:0 10:1 11:0 12:0 
-33 1:0.05 2:0.07 3:0.08 4:0 5:0.14 6:0.07 7:0 8:0 9:0 10:1 11:0 12:0 
-33 1:0.22 2:0.37 3:0.28 4:0.5 5:0.53 6:0.3 7:1 8:0 9:0 10:1 11:0 12:0 
-33 1:0.59 2:1 3:0.88 4:0.88 5:1 6:0.89 7:0 8:0 9:0 10:1 11:1 12:0 
-33 1:1 2:0.33 3:0.44 4:0.41 5:0.46 6:0.19 7:0 8:1 9:0 10:0 11:1 12:0 
-31.908479356137899 1:0.43 2:0.57 3:0.36 4:0.63 5:0.78 6:0 7:1 8:0 9:0 10:1 11:0 12:0 
-33 1:1 2:0.51 3:0.52 4:0.63 5:0.64 6:0.1 7:1 8:0 9:0 10:1 11:1 12:0 
-29.763353698643474 1:1 2:0.67 3:0.28 4:0.88 5:1 6:0.91 7:0 8:1 9:0 10:0 11:0 12:0 
-33 1:0.59 2:0.6 3:0.4 4:0.63 5:0.65 6:0.19 7:0 8:0 9:0 10:1 11:1 12:0 
-0.99732958525073834 1:1 2:0.23 3:0.24 4:0.38 5:0.28 6:0.63 7:1 8:0 9:0 10:1 11:0 12:0 
-33 1:0.16 2:0.3 3:0.28 4:0.25 5:0.44 6:0.18 7:1 8:0 9:0 10:1 11:0 12:0 
-33 1:0.11 2:0.53 3:0.64 4:0.41 5:0.73 6:0.63 7:1 8:0 9:0 10:1 11:0 12:0 
-30.573793926357432 1:0.32 2:0.53 3:0.56 4:0.38 5:0.38 6:0.07 7:1 8:0 9:1 10:0 11:0 12:0 
-33 1:0.43 2:0 3:0.08 4:0.32 5:0.17 6:0.14 7:0 8:0 9:0 10:1 11:0 12:0 
-33 1:0.97 2:0.37 3:0.48 4:0.25 5:0.28 6:0 7:0 8:0 9:0 10:1 11:1 12:0 
-33 1:0.48 2:0.1 3:0.08 4:0 5:0.14 6:0.27 7:1 8:0 9:0 10:1 11:1 12:0 
-33 1:0.38 2:0.43 3:0.08 4:0.88 5:0.58 6:0.01 7:0 8:1 9:0 10:0 11:0 12:0 
-33 1:0.27 2:0.17 3:0.24 4:0.13 5:0.15 6:0.16 7:0 8:0 9:0 10:1 11:0 12:0 
-3.4441311082984658 1:0.11 2:0.67 3:0.2 4:0.63 5:0.67 6:0.86 7:0 8:0 9:0 10:1 11:0 12:0 
-33 1:0.81 2:0.1 3:0.08 4:0.41 5:0.28 6:0.35 7:0 8:0 9:0 10:1 11:0 12:0 
-14.762003401319145 1:0.27 2:0.2 3:0.28 4:0.13 5:0.02 6:0.03 7:1 8:0 9:0 10:1 11:0 12:0 
-6.9812043229896608 1:0.38 2:0.6 3:0.28 4:0.63 5:0.92 6:0.5 7:0 8:1 9:0 10:0 11:0 12:0 
-0.26211023057767169 1:0.43 2:0.67 3:0.2 4:0.88 5:0.8 6:0.02 7:0 8:1 9:0 10:0 11:0 12:0 
-33 1:0.27 2:0.17 3:0.24 4:0.38 5:0.33 6:0.43 7:0 8:0 9:0 10:1 11:0 12:0 
-33 1:0.27 2:0.48 3:0.16 4:0.25 5:0.49 6:0.69 7:0 8:0 9:0 10:1 11:0 12:0 
-33 1:0.48 2:0.27 3:0.28 4:0.38 5:0.35 6:1 7:0 8:1 9:0 10:0 11:0 12:0 
-33 1:0.48 2:0.5 3:0.36 4:0.25 5:0.54 6:0.35 7:0 8:0 9:0 10:1 11:0 12:0 
-33 1:0.7 2:0.6 3:0.72 4:0.63 5:0.59 6:0.72 7:0 8:0 9:0 10:1 11:1 12:0 
-33 1:0.7 2:1 3:1 4:1 5:0.93 6:0.19 7:0 8:1 9:0 10:0 11:0 12:0 
-33 1:0.81 2:0.17 3:0.2 4:0.38 5:0.39 6:0 7:0 8:1 9:0 10:0 11:1 12:0 
-33 1:0.43 2:0.33 3:0.36 4:0.25 5:0.24 6:0.88 7:0 8:0 9:0 10:1 11:0 12:0 
-33 1:0.65 2:0.3 3:0.28 4:0.41 5:0.39 6:0.35 7:1 8:1 9:0 10:0 11:0 12:0 
-33 1:0.43 2:0.37 3:0.36 4:0.38 5:0.41 6:0.36 7:1 8:1 9:0 10:0 11:0 12:0 
-12.901219662544712 1:0.05 2:0.43 3:0.08 4:0.5 5:0.55 6:0.81 7:1 8:0 9:0 10:1 11:0 12:0 
-33 1:0.38 2:0.7 3:1 4:0.63 5:0.42 6:0.01 7:1 8:0 9:0 10:1 11:0 12:0 
-33 1:0.7 2:0.37 3:0.48 4:0.25 5:0.38 6:0.45 7:0 8:1 9:0 10:0 11:0 12:0 
-33 1:0.48 2:0.15 3:0.24 4:0.25 5:0.49 6:0.99 7:0 8:1 9:0 10:0 11:0 12:0 
-30.505294636495293 1:0.86 2:0.2 3:0.24 4:0.38 5:0.14 6:0.83 7:0 8:0 9:0 10:1 11:1 12:0 
-33 1:0.38 2:0 3:0 4:0.13 5:0.33 6:0.18 7:1 8:0 9:0 10:1 11:0 12:0 
-33 1:0.48 2:0.3 3:0.28 4:0.63 5:0.25 6:0.83 7:0 8:1 9:0 10:0 11:0 12:0 
-33 1:0.7 2:0.4 3:0.44 4:0.38 5:0.45 6:0.52 7:1 8:1 9:0 10:0 11:0 12:0 
-33 1:0.22 2:0.27 3:0.28 4:0.13 5:0.27 6:0.3 7:0 8:0 9:0 10:1 11:0 12:0 
-33 1:0.38 2:0.67 3:0.8 4:0.41 5:0.49 6:0.11 7:0 8:1 9:0 10:0 11:0 12:0 
-33 1:0.54 2:0.17 3:0.16 4:0.13 5:0.23 6:0.17 7:0 8:0 9:0 10:1 11:0 12:0 
-1.7609589236159617 1:0.59 2:0.37 3:0.28 4:0.38 5:0.47 6:0.78 7:0 8:1 9:0 10:0 11:0 12:1 
-33 1:0.7 2:0.77 3:0.68 4:1 5:0.66 6:0.1 7:1 8:1 9:0 10:0 11:0 12:0 
-33 1:0.38 2:0.43 3:0.28 4:0.41 5:0.4 6:0.64 7:1 8:1 9:0 10:0 11:0 12:0 
-33 1:0.11 2:0.37 3:0.28 4:0.5 5:0.47 6:0.61 7:0 8:0 9:0 10:1 11:0 12:0 
-33 1:0.54 2:0.37 3:0.32 4:0.5 5:0.35 6:0.01 7:1 8:1 9:0 10:0 11:0 12:0 
-33 1:0.48 2:0.33 3:0.4 4:0.06 5:0.46 6:0.51 7:0 8:1 9:0 10:0 11:0 12:0 
-33 1:0.81 2:0.17 3:0.32 4:0.17 5:0.23 6:0.14 7:0 8:1 9:0 10:0 11:0 12:0 
-33 1:0.32 2:0.37 3:0.48 4:0.38 5:0.38 6:0.01 7:1 8:0 9:0 10:1 11:0 12:0 
-16.293876155315861 1:0.91 2:0.83 3:0.88 4:0.41 5:0.86 6:0.88 7:1 8:0 9:0 10:1 11:1 12:0 
-4.9502103468130825 1:0.86 2:0.2 3:0.28 4:0.25 5:0.21 6:0.02 7:1 8:1 9:0 10:0 11:1 12:0 
-33 1:0.22 2:0.37 3:0.28 4:0.41 5:0.25 6:0.53 7:0 8:0 9:1 10:0 11:0 12:0 
-33 1:0.32 2:0.13 3:0.28 4:0.32 5:0.21 6:0.3 7:0 8:0 9:0 10:1 11:0 12:0 
