svm_type c_svc
kernel_type linear
nr_class 4
total_sv 14
rho 0 0 0.00068587105624151351 0 0.00013574531321448586 0.0004133597883596063
label 1 2 3 4
nr_sv 2 3 5 4
SV
0 0 0.99908550525834483 1:0 2:0 3:0 4:1 5:0 6:0 7:0 8:0 9:0 10:1 11:0 12:0 13:0 
1 1 0.00091449474165523339 1:0 2:0 3:1 4:0 5:0 6:0 7:0 8:0 9:0 10:1 11:0 12:0 13:0 
-0 0 0.089891975308641958 1:0 2:0 3:0 4:1 5:0 6:0 7:0 8:0 9:0 10:0 11:1 12:0 13:0 
-0 0 0.90888631687242805 1:0 2:1 3:0 4:0 5:0 6:0 7:0 8:0 9:0 10:0 11:1 12:0 13:0 
-1 1 0.00081447187928668815 1:0 2:0 3:1 4:0 5:0 6:0 7:0 8:0 9:0 10:0 11:1 12:0 13:0 
-0 -0 0.44270833333333309 1:0 2:0 3:0 4:0 5:0 6:0 7:0 8:0 9:0 10:0 11:0 12:1 13:0 
-0 -0 0.00028935185185179763 1:1 2:0 3:0 4:0 5:0 6:0 7:1 8:0 9:0 10:0 11:0 12:1 13:0 
-0 -0 0.00057870370370370367 1:0 2:0 3:0 4:1 5:0 6:0 7:0 8:0 9:0 10:0 11:0 12:1 13:0 
-0 -0 0.55584490740740744 1:0 2:1 3:0 4:0 5:0 6:1 7:0 8:0 9:0 10:0 11:0 12:1 13:0 
-1 -1 0.00057870370370370367 1:0 2:0 3:1 4:0 5:0 6:0 7:0 8:0 9:0 10:0 11:0 12:1 13:0 
-0 -0 -0.55555555555555558 1:0 2:1 3:0 4:0 5:0 6:1 7:0 8:0 9:0 10:0 11:0 12:0 13:1 
-0 -0.90888631687242805 -0 1:0 2:1 3:0 4:0 5:0 6:0 7:0 8:0 9:0 10:0 11:0 12:0 13:1 
-0.99817101051668955 -0.089891975308641958 -0 1:0 2:0 3:0 4:1 5:0 6:0 7:0 8:0 9:0 10:0 11:0 12:0 13:1 
-0.0018289894833103844 -0.00081447187928661486 -0.44444444444444436 1:0 2:0 3:0 4:0 5:0 6:0 7:0 8:0 9:0 10:0 11:0 12:0 13:1 
